tree
version=v4
num_class=1
num_tree_per_iteration=1
label_index=0
max_feature_idx=206
objective=binary sigmoid:1
feature_names=user_int_feats_1 user_int_feats_3 user_int_feats_4 user_int_feats_48 user_int_feats_49 user_int_feats_50 user_int_feats_51 user_int_feats_52 user_int_feats_53 user_int_feats_54 user_int_feats_55 user_int_feats_56 user_int_feats_57 user_int_feats_58 user_int_feats_59 user_int_feats_82 user_int_feats_86 user_int_feats_92 user_int_feats_93 user_int_feats_94 user_int_feats_95 user_int_feats_96 user_int_feats_97 user_int_feats_98 user_int_feats_99 user_int_feats_100 user_int_feats_101 user_int_feats_102 user_int_feats_103 user_int_feats_104 user_int_feats_105 user_int_feats_106 user_int_feats_107 user_int_feats_108 user_int_feats_109 item_int_feats_5 item_int_feats_6 item_int_feats_7 item_int_feats_8 item_int_feats_9 item_int_feats_10 item_int_feats_12 item_int_feats_13 item_int_feats_16 item_int_feats_81 item_int_feats_83 item_int_feats_84 item_int_feats_85 user_int_feats_15_mean user_int_feats_60_mean user_int_feats_62_mean user_int_feats_63_mean user_int_feats_64_mean user_int_feats_65_mean user_int_feats_66_mean user_int_feats_80_mean user_int_feats_89_mean user_int_feats_90_mean user_int_feats_91_mean user_dense_feats_61_mean user_dense_feats_62_mean user_dense_feats_63_mean user_dense_feats_64_mean user_dense_feats_65_mean user_dense_feats_66_mean user_dense_feats_87_mean user_dense_feats_89_mean user_dense_feats_90_mean user_dense_feats_91_mean item_int_feats_11_mean domain_a_seq_38_len domain_a_seq_38_mean domain_a_seq_38_max domain_a_seq_39_len domain_a_seq_39_mean domain_a_seq_39_max domain_a_seq_40_len domain_a_seq_40_mean domain_a_seq_40_max domain_a_seq_41_len domain_a_seq_41_mean domain_a_seq_41_max domain_a_seq_42_len domain_a_seq_42_mean domain_a_seq_42_max domain_a_seq_43_len domain_a_seq_43_mean domain_a_seq_43_max domain_a_seq_44_len domain_a_seq_44_mean domain_a_seq_44_max domain_a_seq_45_len domain_a_seq_45_mean domain_a_seq_45_max domain_a_seq_46_len domain_a_seq_46_mean domain_a_seq_46_max domain_b_seq_67_len domain_b_seq_67_mean domain_b_seq_67_max domain_b_seq_68_len domain_b_seq_68_mean domain_b_seq_68_max domain_b_seq_69_len domain_b_seq_69_mean domain_b_seq_69_max domain_b_seq_70_len domain_b_seq_70_mean domain_b_seq_70_max domain_b_seq_71_len domain_b_seq_71_mean domain_b_seq_71_max domain_b_seq_72_len domain_b_seq_72_mean domain_b_seq_72_max domain_b_seq_73_len domain_b_seq_73_mean domain_b_seq_73_max domain_b_seq_74_len domain_b_seq_74_mean domain_b_seq_74_max domain_b_seq_75_len domain_b_seq_75_mean domain_b_seq_75_max domain_b_seq_76_len domain_b_seq_76_mean domain_b_seq_76_max domain_b_seq_77_len domain_b_seq_77_mean domain_b_seq_77_max domain_b_seq_78_len domain_b_seq_78_mean domain_b_seq_78_max domain_b_seq_79_len domain_b_seq_79_mean domain_b_seq_79_max domain_b_seq_88_len domain_b_seq_88_mean domain_b_seq_88_max domain_c_seq_27_len domain_c_seq_27_mean domain_c_seq_27_max domain_c_seq_28_len domain_c_seq_28_mean domain_c_seq_28_max domain_c_seq_29_len domain_c_seq_29_mean domain_c_seq_29_max domain_c_seq_30_len domain_c_seq_30_mean domain_c_seq_30_max domain_c_seq_31_len domain_c_seq_31_mean domain_c_seq_31_max domain_c_seq_32_len domain_c_seq_32_mean domain_c_seq_32_max domain_c_seq_33_len domain_c_seq_33_mean domain_c_seq_33_max domain_c_seq_34_len domain_c_seq_34_mean domain_c_seq_34_max domain_c_seq_35_len domain_c_seq_35_mean domain_c_seq_35_max domain_c_seq_36_len domain_c_seq_36_mean domain_c_seq_36_max domain_c_seq_37_len domain_c_seq_37_mean domain_c_seq_37_max domain_c_seq_47_len domain_c_seq_47_mean domain_c_seq_47_max domain_d_seq_17_len domain_d_seq_17_mean domain_d_seq_17_max domain_d_seq_18_len domain_d_seq_18_mean domain_d_seq_18_max domain_d_seq_19_len domain_d_seq_19_mean domain_d_seq_19_max domain_d_seq_20_len domain_d_seq_20_mean domain_d_seq_20_max domain_d_seq_21_len domain_d_seq_21_mean domain_d_seq_21_max domain_d_seq_22_len domain_d_seq_22_mean domain_d_seq_22_max domain_d_seq_23_len domain_d_seq_23_mean domain_d_seq_23_max domain_d_seq_24_len domain_d_seq_24_mean domain_d_seq_24_max domain_d_seq_25_len domain_d_seq_25_mean domain_d_seq_25_max domain_d_seq_26_len domain_d_seq_26_mean domain_d_seq_26_max label_time_hour label_time_dayofweek
feature_infos=[1:4] [0:1839] [0:983] [0:99] [0:2] none none [0:174] [0:557] [0:2843] [0:41] [0:1432] [0:250] [0:2] [0:14] [0:23] [0:245] [0:2] [0:36] [0:6] [0:3] [0:3] [0:3] [0:3] [0:3] [0:2] [0:3] [0:3] [0:3] [0:3] [0:3] [0:3] [0:2] [0:7] [0:7] [0:325] [0:977] [0:2806] [-1:2431] [0:37] [0:309] [0:2777] [0:8] [0:35259] [0:2] [0:31] [0:226] [0:1001] [0:1111] [0:2] [0:9] [0:45] [0:50] [0:437] [0:1438] [0:12] [0:4.5999999999999996] [0:4.0999999999999996] [0:4.7000000000000002] [-0.0050856871530413628:0.0028427471406757832] [0:2524240] [0:2437003.25] [0:2524240] [0:4665958.5] [0:2768573.5] [-0.028267186135053635:0.0084115630015730858] [-0.00021000322885811329:1.000270731310593e-05] [-0.00021000322885811329:0] [-0.00022999561042524874:0.000109995344246272] [0:29336] [0:1888] [0:147623.69876543211] [0:1201100] [0:1888] [0:1772633693.4594595] [0:1772725487] [0:1888] [0:12.666666666666666] [0:18] [0:1888] [0:11] [0:11] [0:1888] [0:800.66363636363633] [0:1017] [0:1888] [0:2752.4518518518516] [0:3449] [0:1888] [0:7304.0793103448277] [0:15146] [0:1888] [0:1726.6180555555557] [0:9212] [0:1888] [0:12.284936479128856] [0:17] [0:1952] [0:1772618407.75] [0:1772725642] [0:1952] [0:24.108731466227347] [0:27] [0:1952] [0:75869825.666666672] [0:143233599] [0:1952] [0:629.29999999999995] [0:733] [0:1952] [0:2415.7957166392093] [0:2690] [0:1952] [0:9031] [0:10489] [0:1952] [0:5286.8813747228378] [0:7238] [0:1952] [-0.075555555555555556:172849.60000000001] [0:638923] [0:1952] [0:26] [0:29] [0:1952] [-0.5:87372.951388888891] [0:164031] [0:1952] [0:151.66666666666666] [0:167] [0:1952] [0:3804.3610202746895] [0:4319] [0:1952] [0:8079.1192917054987] [0:11780] [0:1952] [0:199310.19270833334] [0:288958] [0:3894] [0:1772723827] [0:1772725680] [0:3894] [0:48.98615916955017] [0:74] [0:3894] [0:4068939] [0:8227607] [0:3894] [0:601.91329479768785] [0:857] [0:3894] [0:6235] [0:7085] [0:3894] [0:4.9745762711864403] [0:6] [0:3894] [0:2.7057654075546718] [0:3] [0:3894] [0:1004800.8536585366] [0:1986299] [0:3894] [0:2813] [0:3003] [0:3894] [0:816227.77777777775] [0:1511292] [0:3894] [0:7285] [0:9948] [0:3894] [0:102947722.33333333] [0:278673140] [0:3622] [0:3.3458498023715415] [0:4] [0:3622] [0:793.66666666666663] [0:974] [0:3622] [0:3374] [0:3419] [0:3622] [0:9454] [0:11297] [0:3622] [0:1035] [0:5105] [0:3622] [0:409686] [0:509309] [0:3622] [0:622780] [0:674033] [0:3622] [0:458.70580645161289] [0:602] [0:3622] [0:10] [0:14] [0:3622] [0:1772721214.980695] [0:1772725620] none none
tree_sizes=2525 3361 2739 3163 3060

Tree=0
num_leaves=23
num_cat=0
split_feature=147 38 53 92 43 68 113 195 92 125 185 155 158 119 43 142 191 161 173 59 179 1
split_gain=27.6607 26.6234 26.4892 23.4237 29.2383 27.5532 21.582 21.1431 20.3892 15.5976 17.6426 15.6858 15.4679 14.6684 17.4114 12.982 12.7222 6.81821 12.249 4.81032 2.97314 7.10543e-15
threshold=6200820.5000000009 1815.5000000000002 247.55000000000004 80.186857673123782 17654.500000000004 1.0002794624597302e-05 2324.2923076923084 617534.00000000012 243.76035658057393 10001.757031250001 3167.7641276538711 2.2712683804083365 1.3489151012086793 6720.7669612445925 10592.500000000002 860.00000000000011 19898.675590693827 501124.78010471206 71000068.42909202 0.00018328579608350995 465.37519686432734 525.50000000000011
decision_type=2 2 2 2 2 2 2 2 2 2 2 2 2 2 2 2 2 2 2 2 2 2
left_child=1 8 3 4 12 6 15 -8 19 11 16 -9 21 17 -15 -5 -11 -4 -19 -1 -13 -2
right_child=2 -3 13 5 -6 -7 7 9 -10 10 -12 20 -14 14 -16 -17 -18 18 -20 -21 -22 -23
leaf_value=-0.20000006215913033 -0.20000006215912997 0.12979146080631418 0.18509416881637075 -0.20000006215913052 0.042600638620756512 -0.20000006215913047 -0.20000006215913047 -0.0028543397305614052 0.016035173955662677 -0.20000006215913035 0.10592632139104004 0.12660666072259566 0.033969397453128818 0.080549131717872674 -0.13133582598580854 0.055150816592934977 0.055150816592934977 -0.0028543397305614035 0.16740956325115788 -0.059403737551446859 0.19490476915337557 -0.20000006215913047
leaf_weight=16.272430926561366 2.8548124432563844 4.8794320523738852 11.491439744830133 5.4241436421871168 11.607929468154905 5.1386623978614798 2.8548124432563773 8.1624663621187192 7.4487632513046256 5.1386623978614825 7.8901105672121039 14.781036779284479 3.4389003813266745 11.471751570701601 5.8589282333850852 3.1534191370010376 3.1534191370010376 8.1624663621187228 8.7596797496080381 2.8613751679658881 11.205958500504492 12.989396616816519
leaf_count=114 20 10 14 38 39 36 20 33 28 36 19 31 12 32 35 10 10 33 13 14 12 91
internal_value=-6.8375e-08 -0.0849187 0.0186132 -0.0107676 -0.0827917 0.0224881 0.0409987 0.0647376 -0.12433 0.0797535 -0.00111535 0.118074 -0.158275 0.0814246 0.00891785 -0.106197 -0.102968 0.12565 0.0852821 -0.178975 0.156058 -0.2
internal_weight=175 31.462 143.538 97.7937 30.891 66.9027 61.764 53.1865 26.5826 50.3317 16.1822 34.1495 19.2831 45.7443 17.3307 8.57756 8.29208 28.4136 16.9221 19.1338 25.987 15.8442
internal_count=700 166 534 407 162 245 209 161 156 141 65 76 123 127 67 48 46 60 46 128 43 111
is_linear=0
shrinkage=1


Tree=1
num_leaves=31
num_cat=0
split_feature=42 40 87 52 59 139 40 35 3 176 185 75 107 3 158 66 51 179 65 74 200 35 63 204 11 92 125 147 203 83
split_gain=33.0028 25.6731 23.4386 21.7349 21.632 20.8908 21.0451 21.2836 23.4992 20.853 28.4009 20.1658 18.7177 15.1186 13.9035 11.948 11.1417 9.59545 8.16553 5.33083 4.55246 4.00598 3.04303 0.0261716 0.021193 0.0211377 0.0243542 0.0151311 0.0103546 0.00805339
threshold=3.5000000000000004 290.50000000000006 3368.0000000000005 39.800000000000004 -0.0015951031818985937 74.500000000000014 275.50000000000006 182.00000000000003 85.500000000000014 2.9966722037652276 3361.2371812186288 1772679210.0000002 472.54783514983836 53.500000000000007 1.2235027463437234 -2.9997114324942228e-05 25.342857142857145 466.20180784377493 -0.0011559374397620557 1766575240.1787381 8.5738826945628528 85.000000000000014 127851.16015625001 1772724810.0000002 680.50000000000011 149.44383835393384 9851.6924775742718 6201420.5000000009 1771293367.2870233 417.65231319576077
decision_type=2 2 2 2 2 2 2 2 2 2 2 2 2 2 2 2 2 2 2 2 2 2 2 2 2 2 2 2 2 2
left_child=2 5 3 12 15 -2 7 8 9 10 14 -6 20 17 24 23 -13 -11 -18 -9 25 -15 -3 -4 -7 27 -27 -1 -29 -26
right_child=1 22 4 -5 11 6 -8 19 -10 13 -12 16 -14 21 -16 -17 18 -19 -20 -21 -22 -23 -24 -25 29 26 -28 28 -30 -31
leaf_value=-0.18260636367359706 -0.19262160678080914 -0.19296302795789472 -0.18568205830569504 0.11183104543325786 -0.19458154128866545 -0.19503502544499296 0.163793116984218 0.065601837536111596 -0.19052623022054904 -0.11823277209999881 0.12726914201500672 0.14666018249105009 0.037230379433611981 0.1750073165732681 0.050196912004948538 0.039632451471878681 -0.066940965875590452 0.08652816239412596 0.10319980610396989 0.16844908402707481 -0.055248921990677519 0.086512852781723174 -0.062924397281509628 -0.1979966740162323 -0.18216561311212631 -0.19791544657577165 -0.18664065522532952 -0.1930553171434688 -0.18651647853476033 -0.18970790719778105
leaf_weight=4.8075550496578314 3.4064173847436896 4.5392221659421912 4.3884974718093872 3.8644356280565253 2.9834389835596111 4.6832233667373675 15.992821305990217 8.8352101892232913 5.5280068069696418 5.1211548149585742 6.0087017118930808 12.433415219187738 4.9905286133289328 9.4521580189466494 3.1396285444498053 3.2776231616735441 6.256738394498826 4.1377279311418533 5.1364946961402866 11.731750354170797 2.8436401635408393 11.149047315120695 2.981560543179512 2.8443435877561569 2.8272576183080673 4.9744441360235196 3.1158524453639984 4.4012483209371549 5.3846905529499054 2.8355608731508255
leaf_count=34 24 32 31 9 21 33 22 26 39 30 12 21 17 12 10 11 32 11 12 16 14 30 15 20 20 35 22 31 38 20
internal_value=-7.81588e-06 0.0364335 -0.0520346 -0.111601 0.00284247 0.0505351 0.0595932 0.0375062 0.00499278 0.0268921 -0.0535554 0.0505115 -0.139894 0.0794128 -0.134124 -0.118752 0.0812007 -0.0267266 0.00976484 0.124268 -0.174521 0.127116 -0.14141 -0.190525 -0.190058 -0.189473 -0.193573 -0.1872 -0.189457 -0.185942
internal_weight=174.072 102.369 71.7029 34.3824 37.3206 94.8487 91.4422 75.4494 54.8825 49.3545 19.4944 26.8101 30.518 29.8601 13.4857 10.5105 23.8266 9.25888 11.3932 20.567 25.5274 20.6012 7.52078 7.23284 10.346 22.6838 8.0903 14.5935 9.78594 5.66282
internal_count=700 352 348 200 148 305 281 259 217 178 95 86 191 83 83 62 65 41 44 42 174 42 47 51 73 160 57 103 69 40
is_linear=0
shrinkage=0.1


Tree=2
num_leaves=25
num_cat=0
split_feature=42 113 40 139 40 141 2 155 31 89 155 63 60 177 168 7 52 149 113 158 38 143 59 117
split_gain=27.0895 23.7729 21.054 17.1939 17.4579 18.278 23.0836 30.044 16.416 15.6057 17.4208 14.6504 18.593 12.93 9.10011 7.72123 7.26759 2.83266 0.0411656 0.0320775 0.026349 0.0175306 0.0106672 0.0140403
threshold=3.5000000000000004 2457.9747974632505 290.50000000000006 74.500000000000014 275.50000000000006 1772716182.5000002 464.50000000000006 2.7761273209549078 1.0000000180025095e-35 1600.6457646067613 2.4598243948742291 48898.695312500007 9575.0527343750018 3.5000000000000004 1130531.0000000002 144.50000000000003 26.775000000000002 411.48613766730404 3069.4227013491177 1.012151926772592 126.00000000000001 31.420167885422529 -0.0010260903509333728 6042.0000000000009
decision_type=2 2 2 2 2 2 2 2 2 2 2 2 2 2 2 2 2 2 2 2 2 2 2 2
left_child=1 14 3 -2 5 6 7 18 -3 10 20 12 -8 -11 19 -13 -15 -4 -5 22 -10 -20 -1 -24
right_child=2 8 17 4 -6 -7 11 -9 9 13 -12 15 -14 16 -16 -17 -18 -19 21 -21 -22 -23 23 -25
leaf_value=-0.1697489109835221 -0.17650977771301302 -0.18046779325475468 -0.17884894644294339 -0.18851309449602852 0.15001253790425917 0.11850113930502336 0.082570309756277216 0.063096571468161902 -0.173158693844426 -0.072882563069883721 0.026822034601460917 0.030414434965277012 -0.18285797820458677 0.02517667222067764 -0.011042147786995306 0.14431432058320903 0.13769307654560051 -0.052718806442409442 -0.18217499959034011 -0.18347845318795383 -0.18511626641914372 -0.17181006321023951 -0.17194863011444475 -0.18138122724875894
leaf_weight=4.5534741878509521 3.3482442647218695 5.1685496121644965 4.4848878085613242 5.3623872399330157 15.728344470262526 19.096696227788925 5.5372449159622175 8.6193739771842939 3.0538311600685146 6.5939632207155254 8.5782027095556241 10.198615029454233 5.0422700196504593 10.640948072075846 4.2430394142866126 14.292430773377417 12.465618744492529 2.952895849943161 3.0872834473848343 4.4979827851057044 4.646949827671051 3.4612312465906143 3.6041153669357318 2.807074174284935
leaf_count=33 24 37 32 38 22 39 15 25 22 35 31 36 36 39 18 23 22 15 22 32 33 25 26 20
internal_value=-2.56266e-05 -0.0474485 0.0331729 0.0460179 0.0542575 0.0340953 0.00510519 -0.0791089 -0.011495 0.0074992 -0.0711923 0.054404 -0.0439346 0.0506303 -0.140769 0.0968839 0.0858775 -0.128774 -0.182016 -0.176367 -0.180374 -0.176697 -0.17345 -0.176079
internal_weight=172.066 70.8537 101.212 93.7741 90.4259 74.6975 55.6008 20.5303 51.1481 45.9795 16.279 35.0706 10.5795 29.7005 19.7057 24.491 23.1066 7.43778 11.9109 15.4626 7.70078 6.54851 10.9647 6.41119
internal_count=700 348 352 305 281 259 220 110 219 182 86 110 51 96 129 59 61 47 85 111 55 47 79 46
is_linear=0
shrinkage=0.1


Tree=3
num_leaves=29
num_cat=0
split_feature=42 113 40 74 1 55 43 89 135 203 145 48 204 35 137 120 158 135 137 174 36 95 197 155 168 92 21 195
split_gain=22.345 19.9148 17.4019 14.4994 20.9776 14.837 17.6168 13.8935 20.1881 13.8277 10.9872 10.4979 13.4818 9.37078 8.57959 8.47462 4.0236 7.97785 3.86773 3.32725 2.95108 2.59547 0.0850827 0.0552776 0.0292863 0.0253189 0.0139843 0.00500864
threshold=3.5000000000000004 2457.9747974632505 290.50000000000006 1766401950.2674382 1418.5000000000002 8.1666666666666696 8754.0000000000018 2012.5446158499701 11504.000000000002 1771460865.0721843 78.500000000000014 484.1160714285715 1772723790.0000002 131.00000000000003 19334.806280575256 491116.00000000006 1.0282051745647183 10953.000000000002 73737.088392857157 277009724.00000006 480.50000000000006 8.3344997495801803 278.70594656930456 2.4644802867383517 1106021.5000000002 247.87788972089859 1.0000000180025095e-35 621877.50000000012
decision_type=2 2 2 2 2 2 2 2 2 2 2 2 2 2 2 2 2 2 2 2 2 2 2 2 2 2 2 2
left_child=1 15 3 4 5 6 -2 8 18 -7 -5 12 -9 -10 -12 24 17 -16 23 22 -4 -6 -8 25 26 -3 27 -1
right_child=2 7 20 10 21 9 19 11 13 -11 14 -13 -14 -15 16 -17 -18 -19 -20 -21 -22 -23 -24 -25 -26 -27 -28 -29
leaf_value=-0.15777571471163646 0.051773528735636558 -0.16383605074815774 -0.16995866957774533 -0.16661657647313233 -0.17928763110811888 -0.031931479056131286 -0.16800787718857937 0.074367838030185485 -0.065339485682953877 0.13514872236605524 -0.066290828492370807 0.094839189909621799 -0.18353226074261664 0.10055731259702755 0.14539717901658356 -0.0067501875113217024 0.14813067952921763 0.012878526264777305 -0.041730618418456267 -0.047078616187918448 -0.039982504728046493 -0.061623963380241113 -0.19224537447693718 -0.18437328052470195 -0.17457187483305545 -0.17589288084295351 -0.16855471895348551 -0.16302350297852194
leaf_weight=2.7811077982187289 11.648109048604967 4.0457578003406542 4.3964898735284796 1.624574303627013 5.3957218527793867 6.9224474132061031 2.8670759499073011 4.3525534868240374 6.1902442276477796 17.413885027170181 2.9001621007919303 15.27173015475273 3.7936245203018188 7.5669878125190735 9.226648300886156 4.3199632763862601 16.711174726486206 8.9491414129734022 2.787526234984397 2.7744686156511307 2.8984884470701218 2.872839093208313 2.9268329590559006 3.5050079822540283 3.0437026023864737 3.0583633184432983 3.8228664845228186 5.2557761669158936
leaf_count=21 36 30 32 12 39 32 21 13 33 29 15 37 27 18 13 19 24 34 14 14 15 15 21 25 22 22 28 39
internal_value=-5.50109e-05 -0.0434352 0.0303659 0.0421255 0.00787716 0.0350259 -0.0282896 -0.0105018 -0.0591772 0.0876229 0.0880267 0.045939 -0.0457346 0.0259099 0.0989746 -0.130074 0.112713 0.0801495 -0.146555 -0.13713 -0.118316 -0.138406 -0.180252 -0.174097 -0.165822 -0.169027 -0.163576 -0.161208
internal_weight=169.323 69.7952 99.5281 92.2331 52.8214 44.5528 20.2165 50.5718 27.1539 24.3363 39.4117 23.4179 8.14618 13.7572 37.7871 19.2234 34.887 18.1758 13.3967 8.56838 7.29498 8.26856 5.79391 10.6091 14.9035 7.10412 11.8598 8.03688
internal_count=700 348 352 305 207 153 92 219 142 61 98 77 40 51 86 129 71 47 91 56 47 54 42 77 110 52 88 60
is_linear=0
shrinkage=0.1


Tree=4
num_leaves=28
num_cat=0
split_feature=42 113 35 74 141 147 48 70 0 123 113 168 179 2 113 41 35 182 51 192 139 11 51 120 48 43 162
split_gain=18.5182 16.845 16.04 22.7335 17.1956 14.7182 14.6764 14.5829 12.9691 12.1194 28.883 10.9446 8.84409 8.41436 14.2427 8.08555 7.83994 16.5473 2.57423 2.5347 0.0562051 0.0430879 0.0357693 0.0338995 0.0177105 0.0126329 0.00267061
threshold=3.5000000000000004 2457.9747974632505 62.000000000000007 1766125201.8586032 1772722712.0000002 6222361.0000000009 410.08333333333343 742.00000000000011 3.0000000000000004 27.500000000000004 4824.3627976094895 1204666.5000000002 390.25975624047823 347.00000000000006 3381.3391127776999 137.00000000000003 182.00000000000003 1317.8566899948598 28.166666666666668 422528.00000000006 506.50000000000006 665.50000000000011 29.100000000000005 479569.00000000006 547.20000000000016 14387.000000000002 1164184.0000000002
decision_type=2 2 2 2 2 2 2 2 2 2 2 2 2 2 2 2 2 2 2 2 2 2 2 2 2 2 2
left_child=1 15 12 4 6 -5 7 19 -3 10 11 22 -2 -11 -15 -1 17 -7 -14 -4 21 -8 24 25 -10 26 -17
right_child=2 8 3 5 -6 16 20 -9 9 13 -12 -13 18 14 -16 23 -18 -19 -20 -21 -22 -23 -24 -25 -26 -27 -28
leaf_value=-0.0018953629277132106 -0.038276591883936777 -0.17145876974486388 -0.17860150172278055 -0.075312801926994105 0.090126273710968416 -0.17871482496657357 -0.17410347366851855 0.083437130838093537 -0.16666909547610997 0.12860012321213762 0.093750524832879434 0.041256243193537434 0.081970248518886457 0.081891431754018945 -0.17560641042919123 -0.14998477197542309 0.13722836463817431 0.088416086080721712 0.14676475158480826 -0.054529413978504096 -0.18201169182496169 -0.16056425548628495 -0.17375152589370799 -0.16527490385285293 -0.15630384467304162 -0.15901102369714259 -0.15411983443914695
leaf_weight=4.3577519133687046 4.5275459736585644 4.5054135620594016 3.836385019123556 6.9098481088876715 6.2267192453145972 2.9155386239290264 4.5215520486235601 6.6604886800050735 4.4671202376484889 10.143740206956865 9.9209452271461469 3.1563203930854788 12.466700568795206 6.6534579843282682 3.1721960008144379 3.6725656911730749 15.062185004353521 11.331196665763853 12.066050827503203 2.8846459612250328 3.4330689013004294 4.8954548537731171 5.2259014546871185 4.0504696667194358 2.612479031085968 3.8223515301942825 2.7176316231489182
leaf_count=20 22 33 28 39 15 21 33 18 33 19 24 11 32 18 23 29 22 28 17 15 25 37 38 30 20 29 21
internal_value=-7.68208e-05 -0.0399533 0.0278621 0.00150994 -0.0592659 0.0559756 -0.0947278 -0.0214288 -0.00964289 0.00643236 -0.0394192 -0.124866 0.0901391 0.0647135 -0.00124132 -0.12111 0.0869281 0.0337488 0.113838 -0.12535 -0.171058 -0.167065 -0.167476 -0.157534 -0.162844 -0.154463 -0.151743
internal_weight=166.216 68.4783 97.7374 68.6771 32.4583 36.2188 26.2316 13.3815 49.8576 45.3522 25.3828 15.4618 29.0603 19.9694 9.82565 18.6208 29.3089 14.2467 24.5328 6.72103 12.8501 9.41701 12.3055 14.263 7.0796 10.2125 6.3902
internal_count=700 348 352 281 171 110 156 61 219 186 126 102 71 60 41 129 71 49 49 43 95 70 91 109 53 79 50
is_linear=0
shrinkage=0.1


end of trees

feature_importances:
domain_b_seq_72_mean=7
item_int_feats_5=5
item_int_feats_10=5
item_int_feats_13=4
item_int_feats_16=4
domain_a_seq_45_mean=4
domain_c_seq_32_mean=4
domain_c_seq_33_mean=4
user_int_feats_15_mean=3
user_int_feats_63_mean=3
user_dense_feats_61_mean=3
domain_a_seq_39_mean=3
domain_c_seq_27_len=3
domain_c_seq_29_max=3
domain_c_seq_36_max=3
domain_d_seq_18_mean=3
user_int_feats_3=2
user_int_feats_4=2
user_int_feats_48=2
user_int_feats_56=2
item_int_feats_8=2
user_int_feats_64_mean=2
user_dense_feats_65_mean=2
domain_a_seq_44_mean=2
domain_b_seq_74_max=2
domain_b_seq_76_mean=2
domain_b_seq_79_max=2
domain_b_seq_88_mean=2
domain_c_seq_27_max=2
domain_d_seq_20_mean=2
domain_d_seq_23_max=2
domain_d_seq_26_mean=2
domain_d_seq_26_max=2
user_int_feats_1=1
user_int_feats_52=1
user_int_feats_96=1
user_int_feats_106=1
item_int_feats_6=1
item_int_feats_12=1
user_int_feats_65_mean=1
user_int_feats_80_mean=1
user_dense_feats_62_mean=1
user_dense_feats_87_mean=1
user_dense_feats_89_mean=1
user_dense_feats_91_mean=1
domain_a_seq_38_len=1
domain_a_seq_39_max=1
domain_a_seq_42_mean=1
domain_a_seq_43_max=1
domain_a_seq_46_mean=1
domain_b_seq_70_mean=1
domain_b_seq_73_max=1
domain_b_seq_74_mean=1
domain_b_seq_75_max=1
domain_c_seq_28_len=1
domain_c_seq_28_mean=1
domain_c_seq_29_len=1
domain_c_seq_30_mean=1
domain_c_seq_34_mean=1
domain_c_seq_34_max=1
domain_c_seq_47_mean=1
domain_c_seq_47_max=1
domain_d_seq_17_mean=1
domain_d_seq_17_max=1
domain_d_seq_19_mean=1
domain_d_seq_22_mean=1
domain_d_seq_22_max=1
domain_d_seq_24_mean=1
domain_d_seq_25_mean=1

parameters:
[boosting: gbdt]
[objective: binary]
[metric: auc]
[tree_learner: serial]
[device_type: cpu]
[data_sample_strategy: bagging]
[data: ]
[valid: ]
[num_iterations: 100]
[learning_rate: 0.1]
[num_leaves: 31]
[num_threads: 10]
[seed: 42]
[deterministic: 0]
[force_col_wise: 0]
[force_row_wise: 0]
[histogram_pool_size: -1]
[max_depth: -1]
[min_data_in_leaf: 20]
[min_sum_hessian_in_leaf: 0.001]
[bagging_fraction: 0.8]
[pos_bagging_fraction: 1]
[neg_bagging_fraction: 1]
[bagging_freq: 0]
[bagging_seed: 400]
[bagging_by_query: 0]
[feature_fraction: 0.8]
[feature_fraction_bynode: 1]
[feature_fraction_seed: 30056]
[extra_trees: 0]
[extra_seed: 12879]
[early_stopping_round: 0]
[early_stopping_min_delta: 0]
[first_metric_only: 0]
[max_delta_step: 0]
[lambda_l1: 0]
[lambda_l2: 0]
[linear_lambda: 0]
[min_gain_to_split: 0]
[drop_rate: 0.1]
[max_drop: 50]
[skip_drop: 0.5]
[xgboost_dart_mode: 0]
[uniform_drop: 0]
[drop_seed: 17869]
[top_rate: 0.2]
[other_rate: 0.1]
[min_data_per_group: 100]
[max_cat_threshold: 32]
[cat_l2: 10]
[cat_smooth: 10]
[max_cat_to_onehot: 4]
[top_k: 20]
[monotone_constraints: ]
[monotone_constraints_method: basic]
[monotone_penalty: 0]
[feature_contri: ]
[forcedsplits_filename: ]
[refit_decay_rate: 0.9]
[cegb_tradeoff: 1]
[cegb_penalty_split: 0]
[cegb_penalty_feature_lazy: ]
[cegb_penalty_feature_coupled: ]
[path_smooth: 0]
[interaction_constraints: ]
[verbosity: -1]
[saved_feature_importance_type: 0]
[use_quantized_grad: 0]
[num_grad_quant_bins: 4]
[quant_train_renew_leaf: 0]
[stochastic_rounding: 1]
[linear_tree: 0]
[max_bin: 255]
[max_bin_by_feature: ]
[min_data_in_bin: 3]
[bin_construct_sample_cnt: 200000]
[data_random_seed: 175]
[is_enable_sparse: 1]
[enable_bundle: 1]
[use_missing: 1]
[zero_as_missing: 0]
[feature_pre_filter: 1]
[pre_partition: 0]
[two_round: 0]
[header: 0]
[label_column: ]
[weight_column: ]
[group_column: ]
[ignore_column: ]
[categorical_feature: ]
[forcedbins_filename: ]
[precise_float_parser: 0]
[parser_config_file: ]
[objective_seed: 16083]
[num_class: 1]
[is_unbalance: 0]
[scale_pos_weight: 1]
[sigmoid: 1]
[boost_from_average: 1]
[reg_sqrt: 0]
[alpha: 0.9]
[fair_c: 1]
[poisson_max_delta_step: 0.7]
[tweedie_variance_power: 1.5]
[lambdarank_truncation_level: 30]
[lambdarank_norm: 1]
[label_gain: ]
[lambdarank_position_bias_regularization: 0]
[eval_at: ]
[multi_error_top_k: 1]
[auc_mu_weights: ]
[num_machines: 1]
[local_listen_port: 12400]
[time_out: 120]
[machine_list_filename: ]
[machines: ]
[gpu_platform_id: -1]
[gpu_device_id: -1]
[gpu_use_dp: 0]
[num_gpu: 1]

end of parameters

pandas_categorical:[]
